13 50
HallBathroomDoor 0.425999 -0.201903 -0.198067 -0.115450 0.209415 0.063004 -0.274351 -0.235500 0.106097 -0.045488 0.446133 0.393771 0.025769 0.072180 -0.164436 -0.053803 0.156727 -0.220772 -0.157740 0.146223 -0.056023 -0.228814 -0.233567 -0.047408 -0.047332 0.330254 0.149217 0.056430 -0.415945 -0.333902 0.001753 0.453650 -0.071547 0.116095 -0.399452 -0.211115 0.265076 -0.040799 -0.083671 0.449399 0.130346 0.165411 -0.203725 0.422050 0.234544 -0.221734 -0.261219 0.012983 0.042067 0.056881
ToiletFlush 0.325720 -0.144835 -0.142357 -0.076063 0.164345 0.050924 -0.212844 -0.188961 0.074712 -0.040648 0.324619 0.309431 0.008543 0.060196 -0.110896 -0.050843 0.108392 -0.167288 -0.121440 0.102580 -0.027560 -0.160458 -0.180497 -0.036713 -0.038044 0.238112 0.111157 0.040788 -0.321994 -0.251314 0.012702 0.343806 -0.053054 0.099955 -0.305785 -0.165150 0.202538 -0.035430 -0.057749 0.330844 0.103015 0.126289 -0.153777 0.323623 0.177851 -0.171763 -0.199679 0.018836 0.026460 0.039336
HallToiletDoor 0.263670 -0.120871 -0.127516 -0.061987 0.118177 0.031003 -0.165009 -0.148796 0.054695 -0.020681 0.252801 0.245673 0.007782 0.038501 -0.101485 -0.029046 0.085194 -0.141625 -0.091334 0.087640 -0.029418 -0.136819 -0.147160 -0.029235 -0.028387 0.191709 0.078637 0.034106 -0.249949 -0.191955 -0.000129 0.270137 -0.045488 0.078472 -0.250447 -0.118346 0.164381 -0.031476 -0.054440 0.264725 0.080525 0.096524 -0.127751 0.253394 0.128413 -0.132083 -0.150947 0.002389 0.013535 0.038923
Fridge 0.301002 -0.136687 -0.139140 -0.076363 0.137007 0.046510 -0.193079 -0.164805 0.073305 -0.042195 0.305233 0.278045 0.020828 0.041708 -0.102833 -0.040011 0.112096 -0.154581 -0.103739 0.102552 -0.035340 -0.150675 -0.154294 -0.032048 -0.021053 0.221545 0.102120 0.036202 -0.287448 -0.228606 0.005439 0.310208 -0.039249 0.094685 -0.282070 -0.146908 0.177392 -0.032950 -0.070053 0.296771 0.078078 0.117436 -0.129632 0.283404 0.156891 -0.149985 -0.177944 0.000525 0.016632 0.029742
HallBedroomDoor 0.238531 -0.113359 -0.102559 -0.062519 0.110264 0.035488 -0.146336 -0.139609 0.048126 -0.032035 0.258413 0.217520 0.009068 0.037345 -0.086645 -0.027583 0.083490 -0.126961 -0.097933 0.073117 -0.018973 -0.118711 -0.133891 -0.019026 -0.024010 0.178402 0.078549 0.034702 -0.237129 -0.181676 0.008613 0.257533 -0.035734 0.077902 -0.234351 -0.125557 0.144281 -0.016968 -0.050336 0.240761 0.072518 0.092549 -0.121281 0.241025 0.136135 -0.125599 -0.139411 0.015242 0.013219 0.036986
Frontdoor 0.242114 -0.096370 -0.105069 -0.053112 0.106349 0.037433 -0.139472 -0.122702 0.046041 -0.027702 0.242472 0.221970 0.009487 0.036229 -0.078799 -0.039504 0.083867 -0.127336 -0.087556 0.067170 -0.023241 -0.124455 -0.123100 -0.019469 -0.027358 0.183836 0.069806 0.027005 -0.216146 -0.184228 0.001640 0.234933 -0.043861 0.078352 -0.223322 -0.103314 0.139013 -0.018726 -0.055008 0.248899 0.077644 0.084296 -0.102767 0.228522 0.134165 -0.125695 -0.140866 0.006738 0.024862 0.031236
PlatesCupboard 0.193586 -0.079984 -0.085828 -0.049094 0.097161 0.035338 -0.115151 -0.105945 0.046727 -0.032187 0.201857 0.173595 0.006929 0.034100 -0.078696 -0.032133 0.066405 -0.102483 -0.072017 0.051945 -0.026867 -0.103553 -0.104375 -0.021233 -0.027852 0.134358 0.060710 0.025236 -0.177659 -0.148614 -0.001392 0.192090 -0.039668 0.062351 -0.172488 -0.099788 0.120654 -0.011984 -0.040057 0.199406 0.049769 0.069876 -0.092474 0.182810 0.091508 -0.100098 -0.104827 0.013194 0.012936 0.019785
GroceriesCupboard 0.263747 -0.111737 -0.124367 -0.059763 0.128498 0.038360 -0.165955 -0.143898 0.069662 -0.023314 0.263808 0.246809 0.009722 0.033056 -0.100760 -0.037720 0.094626 -0.128809 -0.098365 0.074232 -0.029475 -0.137508 -0.131930 -0.016599 -0.031257 0.194838 0.080447 0.030357 -0.245132 -0.194088 0.007036 0.271674 -0.046162 0.069595 -0.238900 -0.133463 0.155756 -0.030356 -0.053961 0.268402 0.063895 0.099482 -0.123700 0.248122 0.140172 -0.128746 -0.145134 0.016572 0.009838 0.033640
PansCupboard 0.141323 -0.068088 -0.069916 -0.028055 0.074674 0.018461 -0.099255 -0.082801 0.028413 -0.009047 0.150913 0.131745 0.000595 0.024347 -0.048687 -0.023293 0.050200 -0.074039 -0.055141 0.040461 -0.007656 -0.073289 -0.076792 -0.021821 -0.007670 0.106519 0.051992 0.023171 -0.129115 -0.108315 -0.001061 0.151734 -0.020195 0.031680 -0.135750 -0.074822 0.093413 -0.018392 -0.022214 0.144664 0.034605 0.043684 -0.071143 0.144541 0.073290 -0.061387 -0.088541 0.010274 0.005607 0.019673
CupsCupboard 0.134967 -0.049644 -0.060043 -0.037913 0.070307 0.016205 -0.075779 -0.071745 0.040338 -0.016256 0.139861 0.110983 0.013901 0.023096 -0.052345 -0.008634 0.053482 -0.059088 -0.049285 0.048611 -0.018193 -0.061982 -0.066737 -0.005634 -0.017572 0.100053 0.033827 0.025896 -0.133240 -0.094991 -0.005823 0.139034 -0.013678 0.035241 -0.129201 -0.054887 0.088264 -0.022719 -0.027050 0.142620 0.031227 0.052398 -0.063545 0.118161 0.065804 -0.061823 -0.073692 0.009710 0.015603 0.014049
Freezer 0.157582 -0.079295 -0.080909 -0.043354 0.069384 0.023238 -0.101352 -0.080658 0.044580 -0.020993 0.153983 0.151684 0.013683 0.023420 -0.050952 -0.026775 0.056162 -0.076609 -0.052599 0.057359 -0.012678 -0.072633 -0.091717 -0.020366 -0.021818 0.119363 0.050462 0.024342 -0.155623 -0.118682 -0.002197 0.171209 -0.020170 0.053071 -0.156615 -0.080014 0.096449 -0.015980 -0.034748 0.163397 0.041293 0.054709 -0.069646 0.153555 0.088948 -0.075559 -0.082915 0.004861 0.018765 0.012667
Microwave 0.107768 -0.051684 -0.047644 -0.028728 0.050085 0.010285 -0.075759 -0.062968 0.033408 -0.014197 0.115855 0.115690 0.004758 0.026306 -0.037819 -0.017555 0.031758 -0.058625 -0.036361 0.043499 -0.009607 -0.058410 -0.065122 -0.009070 -0.009800 0.087176 0.046494 0.005108 -0.113518 -0.095164 0.004802 0.110052 -0.022069 0.025230 -0.116803 -0.054666 0.066092 -0.016919 -0.018843 0.117191 0.028467 0.044750 -0.052123 0.104733 0.051551 -0.049740 -0.070780 0.005397 0.006606 0.013955
Dishwasher 0.068579 -0.031534 -0.022096 -0.012091 0.027965 0.015369 -0.032427 -0.041628 0.015850 -0.013018 0.050278 0.048898 0.003458 0.016813 -0.028404 -0.005630 0.023900 -0.024998 -0.018098 0.012000 0.000589 -0.024659 -0.030297 -0.001186 -0.011226 0.051540 0.024675 0.009258 -0.065363 -0.036448 0.002923 0.054313 -0.012367 0.009533 -0.050345 -0.033651 0.041653 -0.014015 -0.016677 0.066254 0.024849 0.029863 -0.034855 0.058274 0.030046 -0.033803 -0.041679 -0.002124 -0.003961 -0.002705
