14 50
HallBathroomDoor -0.2488658 -0.13311872 0.19371536 -0.49829313 -0.5704992 0.047905646 0.23524189 -0.1772771 0.057188716 -0.27333426 -0.16539487 -0.47018364 0.22801612 0.11456332 0.1464707 0.35198832 0.41689178 0.29241264 0.10228908 -0.27868336 -0.07239255 0.106066786 0.14079474 -0.2342235 0.21550879 -0.4859892 0.22279365 0.4166101 -0.28213 0.0136362435 -0.24765582 -0.39958352 0.174256 0.15134017 0.29600576 0.3248558 0.13700259 -0.04961383 -0.084270775 -0.18070932 0.13637455 0.050496403 0.33160508 0.2455884 0.26846462 -0.1727221 0.02937383 -0.13937436 0.3900603 0.39791635
HallToiletDoor -0.23271728 -0.10347369 0.13006511 -0.48264283 -0.54260623 0.075826086 0.21573022 -0.18370225 0.05806874 -0.24177016 -0.13291818 -0.43198732 0.19013385 0.073819056 0.16595528 0.3375617 0.41991255 0.28969887 0.08507507 -0.28098318 -0.060494505 0.07037397 0.04783058 -0.1566133 0.22394788 -0.41149077 0.20791033 0.3880901 -0.28814572 0.055902086 -0.2250875 -0.35808456 0.19990851 0.14652523 0.2887101 0.2739559 0.13947968 -0.046296395 -0.05015455 -0.10186486 0.1297593 0.039678082 0.2957171 0.25310946 0.24880043 -0.1458846 0.0009380621 -0.13423309 0.36471215 0.33024403
Fridge -0.11938421 0.020687453 -0.21216242 -0.27019617 -0.3616079 0.07301628 0.11679863 -0.0964771 0.1992096 0.030288775 0.013046731 -0.3512845 -0.11541166 -0.11974067 0.15263979 0.26253435 0.39929578 0.3452623 -0.04280561 -0.24923372 -0.059551917 -0.13702336 -0.414862 0.23757635 0.28522146 -0.008990581 0.2310652 0.18373936 -0.3288449 0.2837511 -0.061608978 -0.015132213 0.35327038 0.059245434 0.1443137 0.0046100765 0.06389288 -0.14177532 0.18775806 0.38506648 -0.03225472 0.06353953 0.11330254 0.28018433 0.17849909 -0.052260116 -0.1713991 -0.13418898 0.19737302 -0.051173117
ToiletFlush -0.2155868 -0.09503191 0.11227022 -0.45105824 -0.50956297 0.06343394 0.19805582 -0.16733637 0.0827784 -0.20754719 -0.12284437 -0.42104086 0.16881378 0.070746884 0.15129352 0.3146489 0.39132157 0.29034746 0.077918015 -0.25439385 -0.06235522 0.071449324 0.03951153 -0.1437535 0.22763658 -0.39592743 0.22228974 0.36782777 -0.28167686 0.05466636 -0.20717691 -0.32405785 0.20404817 0.14750929 0.27185744 0.2566556 0.12869012 -0.057566904 -0.03041156 -0.07955712 0.106994435 0.03992121 0.2818163 0.24023017 0.24138905 -0.12903164 -0.015743973 -0.13863473 0.35405442 0.3049659
HallBedroomDoor -0.24086387 -0.11372643 0.18187082 -0.46368447 -0.5431513 0.05360941 0.22756422 -0.18493521 0.04304989 -0.25076845 -0.15232858 -0.4515801 0.23060133 0.09675507 0.13639618 0.33531305 0.4139872 0.269128 0.10462631 -0.25741097 -0.0643075 0.11468829 0.1328513 -0.22145738 0.21098602 -0.47464705 0.22539178 0.39065158 -0.2753689 0.015607743 -0.24624483 -0.39027256 0.15470631 0.15349132 0.29559276 0.31316355 0.12698372 -0.045206107 -0.08089266 -0.16094695 0.14127852 0.05735893 0.32262248 0.24871454 0.26018938 -0.15326649 0.0122040305 -0.123744376 0.3719232 0.379564
Frontdoor -0.18743145 -0.06166778 0.03929232 -0.44122815 -0.5021298 0.08294724 0.16742158 -0.15776148 0.11452343 -0.15520802 -0.08167686 -0.4207991 0.07713719 0.0034000557 0.1703242 0.31919846 0.4133631 0.33214697 0.04645088 -0.272219 -0.08212218 0.0088277925 -0.09662022 -0.040886413 0.27224383 -0.30414122 0.21295752 0.32399225 -0.2963935 0.1182395 -0.16024503 -0.25182036 0.26557818 0.13038038 0.22637008 0.20160776 0.12476533 -0.08365578 0.0124619845 0.042860765 0.08452869 0.048067007 0.23039003 0.24470402 0.22014202 -0.1315012 -0.05627384 -0.14569621 0.33419082 0.21174043
GroceriesCupboard -0.1339042 0.004926123 -0.15533598 -0.3001548 -0.38019282 0.08471462 0.12438427 -0.10761998 0.19663467 -0.014681031 -0.015183705 -0.3876913 -0.090390906 -0.08319432 0.15646219 0.26024088 0.41560882 0.363098 -0.017454024 -0.25574276 -0.07672837 -0.13146919 -0.36853918 0.19365911 0.30801687 -0.07919654 0.21254662 0.18623205 -0.3386697 0.23688506 -0.0594001 -0.040071256 0.36220777 0.06865508 0.14889698 0.0340871 0.0655825 -0.119690865 0.14865561 0.33506832 0.0037330668 0.08481656 0.15149625 0.2644637 0.1679373 -0.08632576 -0.14221036 -0.132169 0.22907901 -0.0072710346
PlatesCupboard -0.12675363 0.0112132495 -0.18599771 -0.295268 -0.40291008 0.075845495 0.1548244 -0.10890684 0.21048573 -0.0055312654 -0.017764103 -0.40677705 -0.10235058 -0.11264625 0.16987097 0.29327282 0.42935193 0.35479864 -0.03454726 -0.24773724 -0.079641595 -0.12438527 -0.38564584 0.2132094 0.3216917 -0.052626025 0.25467953 0.19196332 -0.33806422 0.27312195 -0.079177536 -0.053184647 0.3736809 0.06361361 0.13735819 0.055302918 0.0795143 -0.124900535 0.18534839 0.36324015 -0.024052192 0.07587654 0.14407206 0.28023374 0.1890622 -0.084305696 -0.1639817 -0.14453746 0.22761044 -0.02222236
PansCupboard 0.008644986 0.18787162 -0.5813113 -0.10244549 -0.2524864 0.10680392 0.0744468 -0.030087134 0.39332834 0.32287246 0.16662782 -0.3363072 -0.4307938 -0.31671265 0.14003754 0.24439986 0.44816807 0.4909836 -0.16126679 -0.28178218 -0.059929222 -0.388651 -0.96807516 0.6880427 0.4149247 0.39100552 0.28947255 -0.005868107 -0.42941108 0.5496418 0.1316444 0.3581572 0.6150396 -0.023529524 0.032556217 -0.25968865 0.019586204 -0.256434 0.46457848 0.94352335 -0.20047833 0.103498 -0.019777367 0.36935893 0.1463457 -0.007507947 -0.36851692 -0.15288602 0.026936684 -0.45947233
CupsCupboard -0.08741255 0.06636934 -0.2818427 -0.2505071 -0.32999596 0.093739174 0.13182966 -0.083923854 0.22904824 0.09327663 0.050875638 -0.35225406 -0.18334924 -0.16863756 0.156596 0.2571112 0.41186056 0.3764155 -0.07892434 -0.23989575 -0.04521336 -0.16831942 -0.5222723 0.3159875 0.31502444 0.0647832 0.25425693 0.14108527 -0.3296656 0.3364877 -0.030175766 0.06034947 0.4097221 0.038195454 0.10048489 -0.039229784 0.05990268 -0.15107073 0.23729797 0.48091057 -0.07671301 0.085804656 0.10412501 0.28971133 0.17049702 -0.057997733 -0.19068421 -0.1471652 0.1427358 -0.12208708
Freezer -0.13479127 0.018446214 -0.19121106 -0.31205848 -0.3892652 0.06788285 0.14146091 -0.10048639 0.21241792 0.011065432 0.0021964246 -0.3816794 -0.10298849 -0.0948961 0.15105426 0.26806778 0.4246522 0.3464409 -0.026291277 -0.25422332 -0.060098697 -0.10700795 -0.3946864 0.21973929 0.29284677 -0.056127384 0.24054796 0.20107664 -0.34308776 0.26966092 -0.06771894 -0.03693364 0.35105732 0.066240676 0.14687002 0.04825374 0.07285169 -0.13710347 0.1866494 0.35812524 -0.008133708 0.080741145 0.1540533 0.2932286 0.18839213 -0.069209956 -0.15005761 -0.15530746 0.23057882 -0.028372787
Microwave -0.17195785 -0.049442247 -0.07507861 -0.38501 -0.4748623 0.056349367 0.16057295 -0.11934373 0.17639287 -0.10520433 -0.077999905 -0.44733635 -0.00058308727 -0.0464805 0.18613854 0.30513114 0.4324213 0.34850988 -0.003034602 -0.26552847 -0.0924226 -0.037981838 -0.22077562 0.06872687 0.3160293 -0.19482842 0.24171346 0.27260515 -0.33049726 0.19012003 -0.15014063 -0.14875042 0.31982556 0.077383265 0.16331147 0.12829745 0.09904012 -0.08889174 0.11292913 0.20850377 0.021358775 0.0647754 0.19959483 0.27452236 0.22101131 -0.12500961 -0.08794254 -0.1573538 0.30395773 0.12198442
Dishwasher -0.10761061 0.038139522 -0.27184117 -0.30051872 -0.3933779 0.08097915 0.15042375 -0.088925056 0.27201983 0.06972675 0.034814943 -0.42442307 -0.19626649 -0.17169417 0.18188106 0.29214373 0.45325038 0.43507704 -0.07644516 -0.2921005 -0.06616868 -0.17487091 -0.5462602 0.33686426 0.37543392 0.038893983 0.26819265 0.16001326 -0.38464472 0.3459463 -0.038326614 0.054208048 0.46666944 0.034589518 0.1284109 -0.029490579 0.07836462 -0.17808826 0.25790575 0.5122059 -0.071503624 0.08920712 0.11735892 0.3363222 0.18142147 -0.084176496 -0.21712355 -0.14972572 0.18997353 -0.12464868
Washingmachine -0.16238624 -0.031904258 -0.11316492 -0.39496872 -0.51885027 0.0926381 0.18548356 -0.13428044 0.23529866 -0.06127771 -0.06583192 -0.49550256 -0.07043751 -0.07612172 0.20487486 0.35302368 0.48547146 0.39723396 -0.006771752 -0.28189468 -0.11048367 -0.08363229 -0.34595686 0.14133422 0.36426663 -0.15624414 0.27791458 0.25214177 -0.39332777 0.24236569 -0.14055856 -0.1283933 0.3854808 0.06716525 0.16414237 0.11445124 0.1069836 -0.12921773 0.15847906 0.29238567 0.022003302 0.08657733 0.21601686 0.31578597 0.21642058 -0.14069012 -0.12532052 -0.15682425 0.30320525 0.05804961
