14 50
HallBathroomDoor 0.046502534 -0.21342546 -0.115950584 -0.14662972 0.06435658 0.48398477 -0.2507169 -0.20146483 -0.03813227 -0.07872881 -0.07796835 0.3897714 0.051245 -0.109344095 -0.015414966 -0.52591795 0.2291743 -0.045936495 -0.21369483 0.30873543 -0.22713026 -0.08770443 0.40627936 -0.44810805 0.41292584 0.14781848 0.30009764 -0.1766521 0.013246811 0.25617725 0.030187348 0.10754339 0.122997575 0.15781981 0.24159403 -0.35430792 0.015172691 0.107420735 -0.4939542 0.25568968 0.43077162 0.06509804 0.27463463 0.16139497 -0.20251113 0.26005977 -0.20763284 0.056273106 -0.05000986 0.023636216
HallToiletDoor 0.07156741 -0.19955184 -0.10485992 -0.11379541 0.071925625 0.4499987 -0.3028264 -0.16543895 0.011034207 -0.08428235 -0.10267356 0.37148312 -0.016027294 -0.0578151 -0.0067458297 -0.45514682 0.22026964 0.03064486 -0.19127981 0.25300545 -0.24269114 -0.04109023 0.34225 -0.4279158 0.37407288 0.12520243 0.3152571 -0.21000446 0.052833356 0.21654591 0.019700449 0.12250077 0.08116763 0.087248296 0.15957439 -0.3602688 -0.014921375 0.09021964 -0.36931142 0.21712658 0.41824338 0.02075633 0.20811576 0.08038307 -0.18307903 0.19990754 -0.16336249 0.12096953 -0.05637756 -0.02172742
Fridge -0.10268078 -0.10422932 -0.23653229 0.07117999 -0.16526414 0.43248543 -0.35400924 0.046559446 0.09462383 -0.14597613 -0.20341098 0.47113934 0.01949007 -0.11260651 0.059075993 -0.1791296 0.18743348 0.017316263 -0.4470389 0.16419192 -0.21160795 0.06650727 0.17816143 -0.052103873 -0.1336456 -0.1258933 0.17442864 -0.29336298 0.112267606 -0.14497541 -0.05067588 0.21083333 0.028858103 -0.13283464 0.096265666 -0.3043111 -0.17142077 0.15642093 -0.022748662 -0.023816256 0.29594597 -0.21899173 -0.11308499 -0.20123896 -0.06713434 -0.12452959 -0.10152515 0.23128551 0.018392064 -0.29469264
ToiletFlush 0.037292313 -0.16657817 -0.10849453 -0.107444905 0.024712378 0.46649024 -0.26634297 -0.14782664 0.00789686 -0.09086079 -0.09265687 0.37624624 0.02619836 -0.09018232 -0.012001272 -0.45029783 0.20071942 -0.012249703 -0.26328182 0.26867723 -0.21354824 -0.06231934 0.35202926 -0.37940007 0.30148447 0.101384595 0.2869104 -0.1777609 0.05626358 0.18513988 0.00018009856 0.14283162 0.07978335 0.1086415 0.18840662 -0.35496184 -0.0033719349 0.10761945 -0.38866305 0.19831839 0.3792457 0.011785409 0.17481792 0.07503005 -0.16675335 0.18515447 -0.16109455 0.08517311 -0.028652852 -0.036293462
HallBedroomDoor 0.06979178 -0.2046172 -0.08535519 -0.17505409 0.09067621 0.4897939 -0.2507846 -0.2304142 -0.04066841 -0.05469181 -0.07352562 0.37474415 0.058424283 -0.095067784 -0.028274758 -0.5451156 0.22525595 -0.05219398 -0.193895 0.3012329 -0.21760063 -0.11277316 0.42625847 -0.48536322 0.46992967 0.16267173 0.31424534 -0.16652101 0.00972475 0.3014713 0.040280856 0.09377007 0.12458033 0.18408866 0.24796978 -0.36307988 0.033257175 0.08405232 -0.54002416 0.2722089 0.44081044 0.10100972 0.31079435 0.17860517 -0.21698923 0.3002477 -0.2205129 0.042403344 -0.04521268 0.062061902
Frontdoor 0.012961792 -0.16359712 -0.1493311 -0.057490088 -0.017189851 0.44707957 -0.33813506 -0.1060557 0.06344821 -0.10571715 -0.13671061 0.39496705 -0.017746756 -0.06345912 0.016001493 -0.3630639 0.22165269 0.044317897 -0.26949045 0.20693934 -0.23213567 0.015723862 0.26397684 -0.2984509 0.19023608 0.040661883 0.26480782 -0.24142148 0.075907096 0.08744242 0.004213422 0.16282466 0.0670359 0.021076763 0.116794586 -0.35498008 -0.07232242 0.10095579 -0.23204657 0.13091017 0.3803031 -0.063459456 0.09955911 -0.04845348 -0.123369366 0.09420459 -0.12342422 0.18030277 -0.035129853 -0.11125237
GroceriesCupboard -0.07958229 -0.13158995 -0.24129559 0.02022025 -0.11709739 0.455911 -0.33744705 -0.0072428943 0.06399885 -0.13055857 -0.16546758 0.44915605 0.02496167 -0.11578888 0.047203597 -0.26226553 0.2163828 0.02121462 -0.43256098 0.20828645 -0.21864706 0.032336444 0.22936691 -0.12603347 -0.051615413 -0.06869668 0.19735456 -0.2632544 0.085406326 -0.057950743 -0.050044436 0.1990533 0.06410228 -0.10037764 0.13278867 -0.33190554 -0.167328 0.16149415 -0.122010514 0.007567203 0.34471083 -0.19963948 -0.041056633 -0.14780131 -0.09741241 -0.050184183 -0.114475265 0.22925352 0.030708762 -0.23297085
PlatesCupboard -0.10602271 -0.10317533 -0.25477126 0.050246414 -0.15812397 0.46434683 -0.34754953 0.01820446 0.08413467 -0.15042935 -0.2099045 0.49230266 0.032839697 -0.1380957 0.06631147 -0.21050921 0.20353332 0.0050212345 -0.47475022 0.19095208 -0.20716955 0.049156893 0.2109648 -0.073302515 -0.12884776 -0.12528166 0.17963125 -0.2873556 0.115220554 -0.13029538 -0.050551035 0.20402111 0.03876546 -0.120402165 0.10179601 -0.32001647 -0.19402131 0.17225988 -0.056011062 -0.008211306 0.31310922 -0.2337522 -0.08586761 -0.19965948 -0.062058106 -0.118420795 -0.10330648 0.23136017 0.04284819 -0.27627978
PansCupboard -0.21281858 -0.021450946 -0.3828706 0.12545179 -0.31602186 0.48763606 -0.43255714 0.11861318 0.15100008 -0.21967202 -0.2685043 0.53835493 0.061316498 -0.17032634 0.10225743 -0.050403796 0.2055623 0.027754243 -0.6510172 0.11647276 -0.15677562 0.09130432 0.06234101 0.117529154 -0.4431832 -0.28887138 0.09708095 -0.36657557 0.16630082 -0.36636838 -0.12201154 0.298075 0.043445144 -0.28687832 0.044696055 -0.3191254 -0.3251264 0.2109734 0.17715226 -0.17820197 0.2990661 -0.3997821 -0.30794322 -0.4125039 0.028373107 -0.3102656 -0.054036275 0.3604218 0.08537271 -0.4882079
CupsCupboard -0.1572078 -0.06519406 -0.29342887 0.09563562 -0.22715347 0.47697127 -0.402648 0.06860482 0.1295975 -0.15695699 -0.23730454 0.52294534 0.054822158 -0.14741638 0.09014045 -0.15242565 0.19135244 -0.0007441108 -0.5354317 0.15166599 -0.19741598 0.06335456 0.1468231 0.01020284 -0.22838977 -0.18745135 0.15428287 -0.30290017 0.13230716 -0.21382637 -0.07148826 0.24921252 0.009068358 -0.14512639 0.058622144 -0.34136018 -0.20469244 0.1909717 0.0155415395 -0.064348616 0.31500745 -0.2877095 -0.14671181 -0.29710472 -0.026042698 -0.18749927 -0.10142926 0.2927569 0.044567876 -0.36092946
Freezer -0.12142418 -0.10782996 -0.27182436 0.0733833 -0.17006156 0.48505107 -0.3975644 0.046510316 0.105148286 -0.14302506 -0.21796815 0.51853126 0.018941538 -0.12915953 0.07121435 -0.18972044 0.19777414 0.026318282 -0.47379363 0.17895769 -0.23849916 0.058518015 0.20342337 -0.06246795 -0.12982275 -0.1340033 0.17546205 -0.31322044 0.10660842 -0.13825342 -0.044078484 0.21762979 0.024622137 -0.13026151 0.10736464 -0.33405888 -0.19355701 0.1613383 -0.040783014 -0.033547852 0.3238195 -0.2568285 -0.112775 -0.24053976 -0.06916944 -0.13410413 -0.1195279 0.27348366 0.02161948 -0.31392753
Microwave -0.06854689 -0.16415524 -0.22797517 0.014734787 -0.104168266 0.47192618 -0.32937467 -0.017620377 0.07308349 -0.12571171 -0.16682222 0.47071284 0.005045113 -0.12469148 0.04819713 -0.31229645 0.21472113 -0.004208572 -0.3874575 0.23556288 -0.23875491 0.0213364 0.2866788 -0.16159333 0.010641605 -0.042062424 0.2020087 -0.2690897 0.092592426 -0.011480319 -0.033458374 0.19235966 0.07483042 -0.025082199 0.15259439 -0.3405201 -0.13475956 0.13850091 -0.16311802 0.06075052 0.3465328 -0.15524837 -0.004537901 -0.11145125 -0.11908965 -0.004254042 -0.13371064 0.19355108 0.023760496 -0.20050082
Dishwasher -0.12268082 -0.1096739 -0.30209047 0.047893956 -0.20304708 0.5257177 -0.40042344 0.022538316 0.105497055 -0.17024449 -0.22091283 0.51276803 0.030730775 -0.16171545 0.05304922 -0.22450174 0.22687654 0.0049701952 -0.52147746 0.18216832 -0.22689864 0.041612267 0.20990136 -0.07948326 -0.15382308 -0.13363606 0.18391481 -0.31592822 0.127806 -0.15347236 -0.057240397 0.2565077 0.0681103 -0.13983183 0.099661864 -0.3703576 -0.21958317 0.18928067 -0.06258295 -0.025725238 0.358305 -0.25824127 -0.104955405 -0.23551412 -0.06223621 -0.13705976 -0.11904802 0.29242566 0.05341762 -0.32472923
Washingmachine -0.056245036 -0.17647226 -0.26287642 -0.0252901 -0.10788355 0.5944641 -0.42786154 -0.049597234 0.09979329 -0.16229568 -0.19921878 0.5455658 0.034739885 -0.16323717 0.03233088 -0.3823224 0.2754059 -0.015800202 -0.46396542 0.25339818 -0.28566456 0.0231106 0.3440401 -0.22297329 0.060349796 -0.035227507 0.2520941 -0.28751132 0.10223849 -0.0037505045 -0.03270571 0.23227254 0.09239493 -0.020257877 0.15315314 -0.41594324 -0.14058767 0.156714 -0.23898922 0.08124044 0.41803053 -0.17609626 0.03572738 -0.14822572 -0.1412537 -0.010028478 -0.15927531 0.26636383 0.025079703 -0.2249534
