14 50
HallBathroomDoor -0.37075874 0.38357142 0.6104565 0.21476653 0.37192014 -0.23316957 0.12206425 -0.26480395 -0.46034223 -0.26164842 0.12868603 -0.03517308 -0.0004224059 -0.14337972 -0.12124513 0.30068618 -0.1721029 -0.0017011331 0.37725997 -0.3983633 0.40048975 -0.050838698 -0.4631336 -0.08812807 0.15788133 0.17634875 0.47273126 0.28297102 0.24811794 0.11902032 -0.45078516 -0.14811897 -0.3548857 -0.23339391 0.30614755 0.06220749 0.22921675 -0.37624532 -0.026373316 -0.38478228 -0.2858528 0.035574913 0.17130896 -0.31305572 -0.13499442 -0.24130803 -0.19583818 -0.11273473 0.052991763 -0.3974246
HallToiletDoor -0.36770576 0.38362318 0.62054217 0.22057645 0.3791763 -0.2600651 0.11260629 -0.26113933 -0.47248614 -0.27469724 0.13029647 -0.07951355 -0.011056962 -0.12902412 -0.116377085 0.2967686 -0.1735233 0.025266634 0.38681936 -0.3943458 0.40451944 -0.06039443 -0.4684896 -0.06871141 0.13778906 0.17649922 0.48301682 0.27171147 0.257775 0.122117616 -0.45687646 -0.14166501 -0.35862976 -0.2450292 0.3006514 0.046337415 0.23650041 -0.37285492 -0.031348795 -0.41102496 -0.29221016 0.03967261 0.16638842 -0.31621957 -0.124007046 -0.2523276 -0.21837711 -0.09639825 0.07338044 -0.42115283
Fridge -0.53283983 0.2641946 -0.2652823 -0.076400794 0.2535918 -0.1559357 -0.06332917 -0.1389288 -0.08317732 -0.10132136 -0.025193518 0.18556702 0.23583938 -0.5249479 -0.22306003 0.05499026 -0.2977802 0.44198972 -0.1268891 0.17233501 0.22978911 -0.04241424 -0.30132353 -0.21394973 -0.12623166 0.05892544 0.4186761 0.087498344 0.18557328 -0.25302756 0.057679947 0.020978576 -0.3128694 0.28796807 -0.113765836 0.05257255 0.168267 -0.12951025 -0.009015075 -0.2619676 0.022822319 0.3746009 0.42797834 -0.09954946 0.054895025 -0.062072188 -0.19885214 0.121713914 0.30193222 -0.22429302
ToiletFlush -0.377336 0.3520031 0.5303548 0.19919522 0.36175618 -0.23468296 0.09064709 -0.24293105 -0.4306515 -0.25600383 0.11232915 -0.051451605 0.014759446 -0.1420465 -0.12938361 0.27946058 -0.18171762 0.052512694 0.33561596 -0.34675533 0.37265486 -0.05942134 -0.44628 -0.083736174 0.11767108 0.15616418 0.4634724 0.24735935 0.2367013 0.079315 -0.39788085 -0.12909153 -0.34344137 -0.19901809 0.25952548 0.059886348 0.22327648 -0.33668116 -0.03392041 -0.39382955 -0.25859758 0.066505566 0.17605777 -0.29879072 -0.10593899 -0.22604075 -0.20071737 -0.07496137 0.09172014 -0.39551368
HallBedroomDoor -0.35857028 0.36668798 0.59684646 0.21829662 0.36195928 -0.24214259 0.10168341 -0.24847218 -0.44441375 -0.24980257 0.12536916 -0.06554261 -0.0009884646 -0.12411429 -0.1090438 0.28631514 -0.15666421 0.011154493 0.36169901 -0.38461754 0.38291892 -0.06037003 -0.4528042 -0.07369557 0.13801779 0.16954204 0.45985287 0.2647842 0.2508698 0.116549365 -0.44051865 -0.13629046 -0.3316491 -0.2398043 0.288893 0.04490913 0.21204735 -0.35069582 -0.034664243 -0.3956571 -0.27685425 0.042023744 0.15973262 -0.29173887 -0.12285471 -0.22981913 -0.2025803 -0.093189344 0.06125941 -0.39801076
Frontdoor -0.39608967 0.35026512 0.4502878 0.16077213 0.35199293 -0.23762193 0.08549718 -0.21767814 -0.3813654 -0.24103805 0.092163764 -0.032875318 0.035505146 -0.18442792 -0.15223967 0.25553837 -0.19762316 0.10221169 0.28915307 -0.27819717 0.3689252 -0.06119754 -0.426278 -0.08565575 0.07901469 0.15990321 0.44952714 0.22500545 0.24875334 0.044081863 -0.33736178 -0.107717626 -0.33903083 -0.13238345 0.21288018 0.04666938 0.22782642 -0.33378455 -0.037684787 -0.38544393 -0.21840443 0.10005476 0.21378846 -0.26725653 -0.08335664 -0.1945479 -0.20438999 -0.060889486 0.113672756 -0.3799775
GroceriesCupboard -0.514674 0.29556862 -0.019956477 -0.01579517 0.3063956 -0.18286976 0.010011401 -0.1957879 -0.17164974 -0.17166546 0.011658231 0.15240493 0.18033883 -0.4586911 -0.22893982 0.120223835 -0.2816427 0.35458505 0.015064819 0.009470854 0.28956336 -0.05854794 -0.36495057 -0.17560054 -0.04279488 0.1308081 0.45885727 0.13648188 0.22560477 -0.17474988 -0.0602669 -0.044889424 -0.37097386 0.16118254 0.008565196 0.066160634 0.22341894 -0.24318445 0.0018226346 -0.29240167 -0.066399105 0.28599083 0.36663574 -0.18055837 -0.010896514 -0.10177855 -0.19488576 0.045025174 0.24011204 -0.2821245
PlatesCupboard -0.53866345 0.3007449 -0.13990474 -0.028889924 0.30175084 -0.16748887 -0.039128106 -0.20761834 -0.13880892 -0.14246258 -0.003776236 0.20872791 0.20585983 -0.5218935 -0.2225866 0.10766727 -0.3043099 0.40763858 -0.04921731 0.081855446 0.27756444 -0.04473696 -0.36832193 -0.214705 -0.07031637 0.107075505 0.46734655 0.14309582 0.22113807 -0.23534502 -0.038162265 -0.012791589 -0.3663917 0.22702074 -0.013556523 0.084707335 0.19446468 -0.19016665 0.011076135 -0.27744457 -0.043044407 0.3510677 0.40944856 -0.17723423 0.004189251 -0.104209974 -0.21363233 0.059450015 0.28509143 -0.25561503
PansCupboard -0.7071807 0.2389621 -0.85461044 -0.2995522 0.2356577 -0.09515193 -0.12813067 -0.1279209 0.18140803 -0.03128687 -0.120304696 0.4412106 0.41128692 -0.87326753 -0.32460514 -0.10799598 -0.43994153 0.79619205 -0.47602394 0.5474542 0.18573748 -0.052010957 -0.23850222 -0.3178537 -0.2722123 0.06022056 0.44113407 -0.025886979 0.1468976 -0.5494442 0.40067402 0.08787757 -0.37614983 0.6880117 -0.35281685 0.09657232 0.1821819 -0.05712858 0.022640029 -0.14741711 0.20150875 0.6448127 0.6403627 -0.005063115 0.15143286 0.07195144 -0.18653767 0.2160985 0.5027471 -0.11905603
CupsCupboard -0.61571205 0.27853 -0.38261458 -0.10231449 0.25937864 -0.16172124 -0.08481648 -0.15503877 -0.02769299 -0.10073096 -0.042832453 0.2538557 0.29340437 -0.6458978 -0.27450323 0.034667194 -0.34717312 0.54947346 -0.1849264 0.26503715 0.24625114 -0.059460785 -0.32776937 -0.25858408 -0.15653057 0.06131258 0.46511996 0.06335679 0.19147328 -0.34324083 0.12167902 0.03293516 -0.35529885 0.38716018 -0.1552478 0.07204151 0.17948303 -0.12467866 -0.0075671845 -0.25439796 0.035861384 0.45453057 0.49865413 -0.11021993 0.075734355 -0.058327634 -0.2015219 0.14395645 0.3708126 -0.21445861
Freezer -0.52625656 0.30672112 -0.063715965 0.00635165 0.31558147 -0.2021027 -0.024063194 -0.18699323 -0.18799838 -0.14835274 0.019784361 0.12662661 0.17299236 -0.44765818 -0.23245683 0.11969301 -0.2722324 0.3772955 -0.017886827 0.04731137 0.2884387 -0.049491554 -0.36984438 -0.16878937 -0.06015666 0.11698754 0.46855423 0.13458242 0.21733941 -0.18700677 -0.06421333 -0.024887562 -0.35475743 0.16905391 -0.01844537 0.06139924 0.20606688 -0.20160937 -0.008231793 -0.31905204 -0.0759486 0.32083064 0.38583174 -0.18251091 0.014564131 -0.12300842 -0.21191706 0.05081499 0.2531634 -0.2921409
Microwave -0.47681537 0.33715877 0.20345081 0.10642393 0.34065378 -0.21381475 0.015660863 -0.232742 -0.28358537 -0.18759105 0.040240485 0.09540713 0.11548477 -0.3598947 -0.18241867 0.20193486 -0.24461398 0.21356778 0.168948 -0.15156206 0.33228296 -0.038560208 -0.43684366 -0.1776617 0.048842885 0.1405648 0.46891177 0.21658042 0.25556225 -0.08999852 -0.2407713 -0.06649885 -0.3785437 0.0064825257 0.13812733 0.068489745 0.21595588 -0.26670843 0.0010594237 -0.33410785 -0.14731416 0.22731586 0.29896268 -0.24443474 -0.086527795 -0.18939908 -0.23063555 -0.010238362 0.18442997 -0.33374375
Dishwasher -0.6139184 0.31070888 -0.27626887 -0.06964045 0.3237597 -0.1761279 -0.049262438 -0.18511933 -0.09658218 -0.12729828 -0.03546703 0.25156063 0.272183 -0.6266263 -0.27067804 0.07414963 -0.34690672 0.50806594 -0.12883542 0.17535761 0.28015387 -0.04305753 -0.37124854 -0.2400234 -0.1166848 0.114386834 0.50381684 0.10570885 0.22728474 -0.29633126 0.05056742 -0.0045810137 -0.40252912 0.32725435 -0.078531645 0.08009586 0.21430284 -0.19401984 0.008429003 -0.2755484 -0.010433842 0.43844405 0.48280853 -0.1545186 0.037684735 -0.091738135 -0.23315585 0.10727977 0.34360632 -0.25655437
Washingmachine -0.58775026 0.39898694 0.080885455 0.061402544 0.40488565 -0.2198123 -0.011797089 -0.29730266 -0.2528465 -0.2045245 0.021575574 0.20801936 0.18785302 -0.5207292 -0.24973091 0.22596423 -0.32046667 0.33984143 0.09530276 -0.0845699 0.36326265 -0.06386776 -0.5174958 -0.23831116 0.017280357 0.16027898 0.56790227 0.21654487 0.30299678 -0.18693458 -0.18791841 -0.047416534 -0.46026367 0.119478986 0.11393963 0.08875193 0.26009625 -0.28158757 0.024317974 -0.344758 -0.11510675 0.34874463 0.396738 -0.29516622 -0.08580717 -0.21488822 -0.26510978 -0.0043757544 0.2672771 -0.37377048
