14 50
HallBathroomDoor -0.10622164 0.21494102 -0.13349015 -0.15720145 -0.09728235 0.10537946 -0.252864 0.33691147 0.24748743 0.36525083 0.26574764 -0.24299867 0.64357764 0.33141923 -0.21312998 0.38042128 0.040202465 -0.48133048 0.005719535 0.150509 0.30706576 -0.078373775 -0.19606607 0.15001959 0.37604097 -0.12632339 -0.11499201 -0.022219652 -0.5575614 0.48608056 0.014849103 0.55352 0.07899045 -0.22263242 -0.3013035 0.2104996 0.11581899 0.13515434 -0.31996253 0.41945815 -0.25398967 -0.37651506 -0.15280311 -0.48955414 -0.15295005 0.3279349 -0.023755854 0.056911457 0.102512784 -0.33141103
HallToiletDoor -0.10135068 0.17411694 -0.14435542 -0.17461345 -0.039727367 0.120194815 -0.24782883 0.32071197 0.23011723 0.35486537 0.25654897 -0.2157566 0.6479825 0.27635083 -0.16950384 0.39167342 -0.022112539 -0.457553 0.02381831 0.115978256 0.22943623 -0.02950226 -0.20826021 0.18157762 0.35693032 -0.08324324 -0.14232063 -0.053855315 -0.5129507 0.4132195 0.01316141 0.5008025 0.07587241 -0.21873154 -0.26571268 0.21996066 0.095077515 0.1549114 -0.29866257 0.36267364 -0.25992525 -0.39054775 -0.13367474 -0.46112865 -0.11405221 0.28202435 -0.027223956 0.0073125483 0.119400315 -0.261554
Fridge -0.12272886 -0.14010584 -0.25461757 -0.40037993 0.17793329 0.09648293 -0.1925235 0.0952547 0.14251415 0.2616567 0.26131573 0.070913486 0.5391968 -0.07430349 0.048298724 0.39902675 -0.3415015 -0.1882751 -0.093456656 -0.058649756 -0.2416294 0.25410077 -0.2476106 0.23743527 0.25270623 0.19861431 -0.28711572 -0.090927735 -0.1883912 -0.016102038 -0.08318721 0.107163906 0.021987373 -0.17772059 -0.076056056 0.2245952 -0.10951212 0.29173693 -0.2704224 0.15233307 -0.32005548 -0.35815063 0.25486448 -0.2979225 0.29438698 -0.09972175 -0.16804722 -0.2129803 0.16097637 0.06728506
ToiletFlush -0.09493765 0.1589685 -0.13560571 -0.17927514 -0.046822216 0.12420071 -0.23790848 0.29651162 0.22501867 0.33541808 0.26151216 -0.20913436 0.6147121 0.2647015 -0.15760584 0.38540262 -0.04479614 -0.43788856 0.0039362935 0.09566883 0.21428911 -0.021549836 -0.2197401 0.18961242 0.35353336 -0.06094316 -0.13727726 -0.03656665 -0.4979208 0.39023492 0.021648886 0.47714865 0.073459156 -0.20865777 -0.25689134 0.22827807 0.08238163 0.14129546 -0.29487327 0.35369235 -0.27178076 -0.37361598 -0.09658665 -0.43703246 -0.102648325 0.2508374 -0.030205559 -0.011184354 0.123324215 -0.24218325
HallBedroomDoor -0.090850115 0.19935393 -0.11628224 -0.15488206 -0.06705056 0.11492127 -0.24638288 0.32353362 0.22950679 0.33185893 0.24967995 -0.23861676 0.6205558 0.2983277 -0.19343868 0.3704051 0.012493619 -0.46172965 0.012915316 0.13449033 0.25562206 -0.046609305 -0.18674086 0.15544714 0.3432412 -0.09370894 -0.10873119 -0.040444545 -0.5246786 0.43595785 0.034121156 0.52035916 0.061246816 -0.21238862 -0.2840034 0.21381257 0.10967612 0.1211513 -0.29703686 0.38643992 -0.24557443 -0.36135614 -0.15863691 -0.46446207 -0.14839269 0.2977222 -0.016131282 0.021629961 0.09510074 -0.28601506
Frontdoor -0.11464155 0.11643972 -0.1728355 -0.23055753 -0.012722556 0.11203973 -0.22207984 0.2552644 0.19801787 0.33543855 0.27671254 -0.14598578 0.617415 0.20151988 -0.12617195 0.4023623 -0.09257967 -0.39343312 -0.00258825 0.07186699 0.15149255 0.03721589 -0.23087078 0.21046408 0.3471886 -0.027925426 -0.17900147 -0.059627105 -0.45448112 0.32843003 -0.0022959264 0.4107454 0.07743494 -0.1917053 -0.22912583 0.22852005 0.037855495 0.19214302 -0.28840223 0.33026135 -0.29142007 -0.36753678 -0.038082156 -0.41348818 -0.026816886 0.20330673 -0.05714369 -0.031444993 0.14206119 -0.21132842
GroceriesCupboard -0.14285782 -0.12800188 -0.24373089 -0.40185958 0.13977514 0.079115316 -0.19882879 0.121262506 0.16224483 0.2830677 0.2871081 0.045378506 0.54337996 -0.038809165 0.013370281 0.4083969 -0.28574556 -0.2207152 -0.12123078 -0.015052778 -0.17332934 0.22565132 -0.2588389 0.2514197 0.2718952 0.16377437 -0.2771146 -0.06789505 -0.22985102 0.037740864 -0.08232094 0.1402378 0.0436197 -0.17344296 -0.094304964 0.25022277 -0.085975714 0.28595328 -0.28713694 0.20911363 -0.31622204 -0.36532986 0.23959039 -0.29545134 0.25763422 -0.052835144 -0.16484883 -0.1565063 0.16614254 0.005718987
PlatesCupboard -0.14751449 -0.13965741 -0.25964284 -0.4130336 0.1446343 0.0825439 -0.18618418 0.11085482 0.15642059 0.27697748 0.29060662 0.05440522 0.56369257 -0.03625203 0.041262336 0.412464 -0.3054326 -0.22632575 -0.1274503 -0.026482552 -0.20211068 0.2480029 -0.27188876 0.2532078 0.2804823 0.19202039 -0.27119723 -0.09102444 -0.22728878 0.034557354 -0.085598536 0.14481562 0.038174115 -0.16610044 -0.08839544 0.26528642 -0.08906051 0.28382722 -0.29755294 0.19909537 -0.31789523 -0.3733019 0.26530004 -0.33017147 0.2742267 -0.09116538 -0.1582586 -0.19573678 0.16986825 0.02290617
PansCupboard -0.17718503 -0.5607329 -0.42579022 -0.7409018 0.42359996 0.06762453 -0.14780661 -0.1289706 0.09285737 0.20092547 0.30547267 0.40917084 0.46046826 -0.507809 0.3111401 0.46703812 -0.71962625 0.11564668 -0.2950752 -0.23771784 -0.8151082 0.6374451 -0.33131325 0.33983675 0.14615317 0.560642 -0.50118303 -0.13683876 0.16954578 -0.5332428 -0.22981678 -0.36349994 -0.0015373019 -0.14613892 0.13710259 0.26923808 -0.36483207 0.4884306 -0.2564557 -0.055585742 -0.38681835 -0.384328 0.77042127 -0.11923608 0.81192106 -0.5763057 -0.3584111 -0.4456855 0.2380335 0.46138212
CupsCupboard -0.1364381 -0.24874158 -0.29647365 -0.48342952 0.22799423 0.081493266 -0.17537506 0.04369693 0.14800727 0.23706616 0.27555615 0.12974001 0.50982934 -0.1566367 0.09954385 0.3959419 -0.41253105 -0.121149465 -0.14219713 -0.095352694 -0.35777825 0.33438405 -0.26062962 0.25174725 0.22532922 0.26365373 -0.33844727 -0.101202786 -0.10925535 -0.123392545 -0.1304936 0.008010884 0.026162038 -0.15712221 -0.02155952 0.25392824 -0.17188112 0.3307092 -0.27427042 0.12828264 -0.32579732 -0.3452009 0.3797279 -0.24764548 0.41359398 -0.20465145 -0.21776116 -0.25579086 0.19271965 0.15665329
Freezer -0.11699889 -0.117100984 -0.23914403 -0.3886832 0.1588775 0.10410926 -0.21002765 0.1265992 0.16955535 0.2675777 0.2705962 0.027233409 0.5708766 -0.019492086 0.030725192 0.42072707 -0.30724216 -0.23175317 -0.083315305 -0.014742599 -0.17494634 0.24058726 -0.26948115 0.25023258 0.27174377 0.15699065 -0.26467383 -0.09075476 -0.2467339 0.042524315 -0.07673394 0.17255327 0.027883101 -0.16578265 -0.10623931 0.24526566 -0.09016235 0.2635023 -0.2855684 0.19705005 -0.31200427 -0.36740917 0.21404925 -0.32617432 0.23362169 -0.046243798 -0.14198236 -0.18765855 0.1525149 0.028484294
Microwave -0.14558956 0.0064317947 -0.21986784 -0.31249854 0.058677133 0.08660032 -0.20032768 0.19088541 0.18994813 0.32619992 0.30007252 -0.047171015 0.59845877 0.12974747 -0.049844705 0.41778144 -0.16613916 -0.3324428 -0.07754224 0.07041549 0.0041758902 0.12168872 -0.26947284 0.2330258 0.32059145 0.061219122 -0.21086451 -0.073547885 -0.38025045 0.23139608 -0.058953624 0.33584622 0.047608435 -0.17423119 -0.16129602 0.2765148 -0.011435394 0.21720967 -0.3049167 0.32333338 -0.31664845 -0.35458082 0.109596714 -0.40190202 0.109104484 0.07726072 -0.0885192 -0.09272411 0.14201583 -0.121259525
Dishwasher -0.16984376 -0.22802998 -0.3076217 -0.5246122 0.2362236 0.07513719 -0.19064489 0.07235412 0.14895906 0.28872523 0.32217535 0.14085591 0.57910585 -0.1408507 0.10481538 0.46878597 -0.4237444 -0.17093708 -0.17468181 -0.07291626 -0.35026103 0.3482805 -0.3134226 0.2895796 0.26425263 0.2865936 -0.36074263 -0.09246903 -0.1568849 -0.08198633 -0.13844585 0.051975112 0.018136308 -0.17664026 -0.048027944 0.28716087 -0.17802496 0.35075092 -0.30383936 0.16047183 -0.3692882 -0.3905536 0.39937526 -0.30109334 0.41171557 -0.20276763 -0.22162959 -0.2605526 0.1995596 0.13441974
Washingmachine -0.19641392 -0.09999276 -0.28758302 -0.46680194 0.13425922 0.08194784 -0.21462622 0.1494049 0.19336426 0.33496428 0.3689518 0.03886262 0.66572106 0.062266175 0.012981615 0.50016236 -0.29112613 -0.31457865 -0.15695633 0.03539269 -0.11943473 0.23347431 -0.3258349 0.30990738 0.33564463 0.15838946 -0.29201815 -0.08253594 -0.33856377 0.14469533 -0.10642805 0.25440076 0.050481737 -0.17402053 -0.12582487 0.33848703 -0.092850156 0.2916025 -0.36320907 0.31888866 -0.35878432 -0.40768948 0.27322719 -0.4198802 0.25934085 -0.03940257 -0.1448574 -0.17582396 0.19636974 -0.05858977
