14 50
HallBathroomDoor -0.50461817 0.3332845 -0.16761267 -0.12211304 0.29957962 -0.108395934 -0.13398352 -0.19366203 0.32383022 -0.17420828 0.2590792 -0.24054076 -0.13370976 0.117923476 0.11530761 -0.18132716 0.036661778 -0.071254835 -0.35358843 -0.029614149 0.73158723 0.24729848 -0.4566079 -0.2397752 -0.23810479 0.21988198 0.092204414 0.11463314 -0.44526613 -0.42896476 0.47850478 -0.28816965 0.35259902 0.19564259 -0.267976 -0.34918228 -0.2080602 -0.1414671 -0.11754573 0.56770384 0.009446455 0.5707498 -0.12360804 -0.033082955 0.101857394 -0.10882214 0.22582985 -0.095301494 0.25243923 0.046010993
HallToiletDoor -0.44501042 0.22509845 -0.17889136 -0.054295145 0.3257474 -0.11686006 -0.115505286 -0.1690575 0.2853945 -0.19439067 0.22285464 -0.19209486 -0.10889188 0.09802867 0.054809656 -0.19418082 0.045148063 -0.08003426 -0.28800738 -0.06553696 0.65439683 0.21680416 -0.37171254 -0.24722423 -0.1991997 0.12068517 0.10896508 0.08212106 -0.41589993 -0.37486762 0.4101533 -0.26175618 0.3027344 0.19681183 -0.2141367 -0.31334034 -0.22332028 -0.0854731 -0.11423709 0.50699437 0.01812441 0.5153429 -0.13938235 -0.03788946 0.15074548 -0.11962554 0.18127012 -0.059026614 0.240367 0.08560343
Fridge -0.27782923 -0.2579334 -0.17644054 0.23529916 0.42842838 0.13351639 0.082461655 -0.118681245 0.12473021 -0.5376079 0.18132994 0.16017891 0.12730439 0.04185389 -0.15036501 -0.32113037 -0.043101706 -0.15156054 0.031084424 -0.52711 0.35900357 0.09546053 0.05327281 -0.17986415 0.056461513 -0.44424224 0.23707567 -0.18391845 -0.001916084 -0.010746782 0.031905837 -0.059757117 0.2732704 0.14667726 0.03230497 -0.18142872 -0.46797645 0.09616485 -0.081534 0.09257047 0.19133478 0.16861938 -0.14927523 -0.08944148 0.24459027 -0.2436732 -0.010597175 0.17159283 0.2563307 0.13915111
ToiletFlush -0.43147093 0.19457541 -0.1861932 -0.04323651 0.30869955 -0.07515137 -0.096938 -0.15366565 0.26417708 -0.23743573 0.22414544 -0.15275522 -0.07698703 0.096599124 0.03910265 -0.21305573 0.03819997 -0.084113464 -0.24598826 -0.12856857 0.6231894 0.20607275 -0.33413613 -0.23342903 -0.1753854 0.066031374 0.12365617 0.051623065 -0.34682554 -0.31959656 0.37016726 -0.2310696 0.31965086 0.18011995 -0.2027913 -0.29072315 -0.24143842 -0.086657144 -0.10909886 0.4678977 0.03542651 0.4601969 -0.116847664 -0.040081568 0.14854445 -0.1272164 0.15408708 -0.045416955 0.24003468 0.06711601
HallBedroomDoor -0.45293808 0.25171408 -0.17615612 -0.07249641 0.31261605 -0.09454729 -0.09472406 -0.16829187 0.27606848 -0.20669898 0.23324066 -0.1811656 -0.11684188 0.086961806 0.063416585 -0.1957631 0.037067156 -0.065212846 -0.3042733 -0.07919917 0.65127355 0.22423507 -0.38525477 -0.24107254 -0.21149938 0.14052837 0.09867156 0.07770197 -0.39676303 -0.36648375 0.41724217 -0.25219473 0.32648528 0.18211319 -0.2296923 -0.31680566 -0.22358117 -0.11213472 -0.10230322 0.5073852 0.009205462 0.50541246 -0.12749027 -0.025415849 0.13216002 -0.1118548 0.19120319 -0.05092213 0.2459108 0.065611504
Frontdoor -0.39058843 0.10107693 -0.17339092 0.022478947 0.35077757 -0.0658028 -0.08689963 -0.16634955 0.25199962 -0.2591235 0.20890519 -0.12644207 -0.03660813 0.09708887 0.002746742 -0.23431744 0.018926658 -0.105777845 -0.20563059 -0.19649242 0.59592015 0.16937089 -0.2858704 -0.2378926 -0.13442984 -0.017754063 0.14655855 0.017480846 -0.3315328 -0.2911169 0.30524942 -0.22588998 0.3048681 0.19698758 -0.16675405 -0.29005316 -0.29608488 -0.037699882 -0.09752393 0.41573164 0.06927804 0.4474056 -0.14959207 -0.06506107 0.1716473 -0.15928261 0.13474329 -0.011508879 0.25542 0.10051932
GroceriesCupboard -0.33362392 -0.08409901 -0.15437151 0.13561277 0.3996185 0.057987593 0.010951773 -0.15219271 0.20266838 -0.45601162 0.21104139 0.077650934 0.06832749 0.05213455 -0.07144522 -0.27992272 -0.0258909 -0.13579133 -0.08045903 -0.4093611 0.49555698 0.14985342 -0.07651613 -0.18928692 -0.024105499 -0.2962863 0.18289609 -0.1507815 -0.08252889 -0.12771599 0.12583144 -0.13585432 0.3094605 0.14304456 -0.06566994 -0.22960751 -0.42684582 0.04048209 -0.06883152 0.20241958 0.15872298 0.27149907 -0.15102005 -0.061521072 0.17759919 -0.21783449 0.0693577 0.096573286 0.25445744 0.097534016
PlatesCupboard -0.32828772 -0.14327906 -0.17101763 0.17077625 0.42962363 0.105192 0.03532592 -0.15155536 0.17832391 -0.5175935 0.21105088 0.1155762 0.06953303 0.0529146 -0.10026684 -0.31574076 -0.01582565 -0.15948497 -0.05393407 -0.47157782 0.46333477 0.15401202 -0.02715338 -0.20679237 -0.010116317 -0.3492408 0.21092649 -0.16236742 -0.04720736 -0.082656085 0.104255676 -0.11106751 0.3311251 0.1298479 -0.03772228 -0.23134473 -0.4523531 0.049681824 -0.07586983 0.19615887 0.16283287 0.25355268 -0.13208346 -0.079122305 0.21324366 -0.2309702 0.051835585 0.13947117 0.26272857 0.10739985
PansCupboard -0.23292126 -0.60022146 -0.14804736 0.4545141 0.5587801 0.35147485 0.24845366 -0.10107965 0.06600148 -0.8871103 0.18687183 0.47031182 0.29506776 0.00027152247 -0.2841479 -0.4289578 -0.07612924 -0.24888222 0.20793559 -0.91892743 0.26198632 0.0714422 0.36760435 -0.1400848 0.19441997 -0.928927 0.32287917 -0.46758503 0.36959958 0.20902096 -0.2049858 0.0671567 0.36895922 0.07594811 0.16774148 -0.14570636 -0.7022652 0.19000648 -0.028221514 -0.19285835 0.33418152 -0.069185145 -0.16328646 -0.102611236 0.28833535 -0.3438948 -0.11777388 0.37506813 0.30484223 0.124161646
CupsCupboard -0.28746358 -0.27712762 -0.17692912 0.24777588 0.44482434 0.15981363 0.10032389 -0.113499165 0.13468918 -0.59834766 0.17545564 0.18492185 0.14431792 0.057103407 -0.1503829 -0.35143685 -0.052179836 -0.16781951 0.02934544 -0.5886759 0.3835967 0.10317333 0.06417264 -0.17623165 0.06155415 -0.5144653 0.24547805 -0.22850701 0.05047858 -0.012032154 0.024995657 -0.044795603 0.3280959 0.14266975 0.028804725 -0.19507098 -0.5097855 0.09687865 -0.07966641 0.08172427 0.22018081 0.1487043 -0.15529685 -0.07082033 0.2502549 -0.2676525 -0.020802056 0.19138621 0.2636211 0.113794945
Freezer -0.32601836 -0.19249561 -0.19332758 0.19458193 0.44333673 0.09884694 0.0389543 -0.12865871 0.16177009 -0.5204083 0.1862879 0.12573595 0.09289564 0.04896287 -0.12572268 -0.3287739 -0.0038029628 -0.1689968 -0.042247955 -0.48285764 0.45457226 0.1548035 -0.031174362 -0.21352515 -0.0030975265 -0.3898654 0.23278987 -0.15810096 -0.06862656 -0.06877634 0.09273517 -0.09505177 0.33115625 0.14421916 -0.026978087 -0.22444096 -0.47833633 0.051589094 -0.08293277 0.19591217 0.1723489 0.2359664 -0.1415181 -0.0870219 0.2396653 -0.23346266 0.017320171 0.14536713 0.28812736 0.12657669
Microwave -0.39806667 0.019073382 -0.19717409 0.083747596 0.3919153 0.03514059 -0.030582836 -0.18080135 0.23442927 -0.4120238 0.23323292 -0.020881515 -0.00896198 0.05435998 -0.03297852 -0.29096824 -0.0014950492 -0.14280377 -0.15607473 -0.34202403 0.5699863 0.19394301 -0.17256603 -0.22057466 -0.07638795 -0.17005813 0.17384838 -0.076982014 -0.19356892 -0.1967627 0.2076592 -0.1851927 0.33083382 0.16487098 -0.119955406 -0.28391638 -0.38057846 0.0012648207 -0.081922404 0.32861805 0.10274423 0.3672536 -0.13425131 -0.08121307 0.17194839 -0.18835455 0.11717127 0.068707116 0.26866287 0.103584856
Dishwasher -0.35141987 -0.23691563 -0.18562695 0.24111444 0.47778472 0.14974019 0.085511334 -0.15228537 0.1698956 -0.62306863 0.21031643 0.18282661 0.11440135 0.045858875 -0.13108088 -0.3661491 -0.022504097 -0.17058654 -0.0078794025 -0.59087706 0.4861186 0.16162853 0.039518442 -0.19639984 0.00847472 -0.48712856 0.25286034 -0.24721637 0.027728843 -0.04638177 0.049878277 -0.08239688 0.35779235 0.12711358 -0.018549403 -0.22893812 -0.5444999 0.06534244 -0.059221186 0.1475038 0.21383256 0.21464235 -0.14940737 -0.084671006 0.24348485 -0.2681607 0.022654222 0.19560413 0.29961577 0.11958514
Washingmachine -0.46761152 0.008532643 -0.24501385 0.0964209 0.44122905 0.055237006 -0.051232442 -0.22212951 0.29515734 -0.5004344 0.26433662 0.0063793343 -0.009989861 0.05954829 -0.044354763 -0.34324285 0.02302886 -0.16359961 -0.19520839 -0.43878096 0.69840926 0.2583324 -0.19811764 -0.27216446 -0.11687309 -0.24245957 0.20749344 -0.1322709 -0.17997614 -0.19793773 0.231365 -0.18825044 0.413518 0.17745306 -0.14140593 -0.33954468 -0.4890414 -0.0052151503 -0.0905843 0.40214056 0.12301752 0.42588195 -0.13395582 -0.09284906 0.18748075 -0.2315396 0.14007798 0.084755965 0.30130795 0.0932123
