17 50
walkingin 0.438491 0.295478 -0.282624 0.047447 -0.135312 -0.195576 0.116827 -0.203077 -0.415095 -0.668654 0.082305 -0.206229 -0.383260 0.207139 0.174554 -0.262333 0.115005 -0.414233 0.071113 0.359544 0.461714 0.016083 0.288491 -0.034668 0.027754 -0.288749 -0.516906 -0.329158 0.389443 0.418574 -0.291242 0.290247 -0.239912 0.563716 0.018979 -0.649663 0.037661 0.104132 -0.463156 0.399512 0.208073 -0.541269 0.280145 -0.190514 0.031124 -0.121560 -0.203897 0.631464 -0.371610 0.030139
stillstop 0.349435 -0.030357 0.111589 -0.026461 0.006547 0.132307 0.062717 -0.090501 -0.278971 -0.018587 0.058315 -0.295967 -0.226929 -0.361386 -0.139539 -0.049341 0.249170 -0.071322 0.294262 0.497051 0.172603 0.083605 -0.047411 0.207416 -0.236328 0.004382 -0.238376 0.154770 0.089205 0.370524 -0.165106 0.007864 -0.144929 0.413012 -0.117784 -0.305300 0.112086 0.282076 -0.138532 0.126072 0.286137 -0.175855 0.042774 0.165950 -0.003237 0.024781 -0.143886 -0.001712 0.105839 -0.070901
stillstart 0.351596 -0.068876 0.149842 -0.019383 0.018509 0.175663 0.073027 -0.070219 -0.260384 0.063812 0.041574 -0.325857 -0.202610 -0.430710 -0.158353 -0.040099 0.275779 -0.030826 0.336768 0.523381 0.139215 0.087834 -0.088965 0.247379 -0.270641 0.041030 -0.214295 0.207590 0.049812 0.389043 -0.150276 -0.023900 -0.119823 0.418013 -0.130225 -0.280192 0.123960 0.294161 -0.124538 0.109376 0.304830 -0.160868 0.020393 0.190018 -0.002060 0.047939 -0.143744 -0.057679 0.155063 -0.084579
walkingstart 0.396135 0.117211 -0.054541 0.018502 -0.050281 0.011010 0.096516 -0.147306 -0.342746 -0.292716 0.068687 -0.278636 -0.310971 -0.139528 -0.028598 -0.153272 0.188477 -0.204284 0.212358 0.471697 0.295340 0.049728 0.076896 0.131465 -0.126751 -0.107521 -0.370337 -0.037969 0.216246 0.412039 -0.219202 0.141386 -0.192521 0.491809 -0.066755 -0.481916 0.094066 0.232465 -0.291499 0.255488 0.263195 -0.337720 0.144795 0.033789 0.008891 -0.020332 -0.166124 0.270992 -0.087737 -0.019885
walkingstop 0.370199 0.140352 -0.088847 0.010441 -0.066790 -0.047608 0.080954 -0.142488 -0.332134 -0.345338 0.066704 -0.217891 -0.292532 -0.043965 0.034572 -0.164201 0.154740 -0.235406 0.147470 0.379986 0.300440 0.051222 0.120971 0.061893 -0.078762 -0.136860 -0.351607 -0.108953 0.227507 0.355721 -0.211215 0.154418 -0.174366 0.456514 -0.045961 -0.465890 0.062434 0.178514 -0.298352 0.262566 0.225954 -0.342439 0.169097 -0.022203 0.016376 -0.048268 -0.165839 0.319951 -0.151038 -0.010182
busenter 0.338030 -0.145299 0.252766 -0.031761 0.044923 0.261713 0.044410 -0.068137 -0.244866 0.212202 0.042068 -0.345773 -0.175969 -0.576369 -0.247648 0.004830 0.310105 0.049067 0.401857 0.568299 0.094561 0.111763 -0.174704 0.313064 -0.324517 0.109101 -0.143722 0.321927 -0.020903 0.391451 -0.130972 -0.090346 -0.104769 0.397205 -0.171510 -0.220956 0.147063 0.357183 -0.040828 0.040869 0.324179 -0.081883 -0.024144 0.284322 -0.015155 0.095294 -0.129846 -0.201799 0.261014 -0.117154
busexit 0.337950 -0.102900 0.187486 -0.041341 0.019677 0.193331 0.052885 -0.063498 -0.245105 0.117696 0.039977 -0.331001 -0.201666 -0.491450 -0.208349 -0.008218 0.275022 -0.001561 0.355972 0.549205 0.128935 0.097373 -0.120828 0.277200 -0.279330 0.076667 -0.177885 0.233108 0.023066 0.370676 -0.150382 -0.040721 -0.130201 0.408537 -0.136445 -0.249312 0.138059 0.317643 -0.081953 0.064640 0.300437 -0.126113 0.008271 0.225848 -0.008640 0.072766 -0.122520 -0.125656 0.187184 -0.104072
carenter 0.395077 -0.114811 0.232510 -0.025647 0.042868 0.239005 0.078940 -0.105387 -0.322668 0.150256 0.057685 -0.390865 -0.251264 -0.587885 -0.244117 -0.022154 0.338662 0.025782 0.428009 0.655602 0.130982 0.117280 -0.160746 0.306975 -0.361604 0.078929 -0.210404 0.297513 0.018860 0.454312 -0.162938 -0.042015 -0.139161 0.479266 -0.188456 -0.319438 0.144779 0.404769 -0.098282 0.095334 0.375651 -0.129977 -0.017592 0.295245 0.005860 0.076404 -0.166603 -0.136751 0.230806 -0.098558
carexit 0.384933 -0.075500 0.201772 -0.035436 0.026463 0.210316 0.075806 -0.096139 -0.306127 0.093089 0.067844 -0.363119 -0.241074 -0.507488 -0.205254 -0.016678 0.306810 -0.003769 0.385004 0.595732 0.152605 0.111828 -0.122858 0.287147 -0.319166 0.066800 -0.230215 0.248075 0.049088 0.428704 -0.154853 -0.015740 -0.132348 0.460874 -0.168071 -0.309912 0.123020 0.364861 -0.122638 0.110302 0.346916 -0.136179 -0.000957 0.247617 0.003723 0.063410 -0.154434 -0.100451 0.182029 -0.099714
friendhomeexit 0.428142 -0.036376 0.159372 -0.026542 -0.008840 0.193005 0.073068 -0.127725 -0.370191 -0.013917 0.080587 -0.388956 -0.272714 -0.471978 -0.207047 -0.065998 0.291895 -0.057230 0.365085 0.659288 0.213724 0.096279 -0.097338 0.286962 -0.319375 0.034385 -0.294411 0.195054 0.102519 0.486452 -0.177641 0.018211 -0.188663 0.526814 -0.165219 -0.408925 0.160526 0.374024 -0.190599 0.135253 0.347201 -0.238002 0.055294 0.234791 0.021403 0.044101 -0.150508 -0.004279 0.141866 -0.086572
friendhomeenter 0.436160 -0.034661 0.123979 -0.006553 -0.023515 0.163304 0.090174 -0.127464 -0.363698 -0.045369 0.069623 -0.376345 -0.292546 -0.427582 -0.186866 -0.064733 0.286683 -0.090468 0.352413 0.633722 0.222283 0.092132 -0.070036 0.268481 -0.298666 0.023637 -0.310327 0.153369 0.119574 0.475644 -0.191145 0.043116 -0.185971 0.521554 -0.144031 -0.414875 0.147464 0.360420 -0.191548 0.152612 0.348354 -0.251238 0.054813 0.203609 0.026118 0.032321 -0.160797 0.022631 0.090780 -0.070257
culturalplaceenter 0.527654 0.057590 0.036305 0.002239 -0.043761 0.090061 0.096565 -0.184689 -0.468798 -0.230476 0.096132 -0.416117 -0.376653 -0.362319 -0.104290 -0.147441 0.310537 -0.211795 0.350414 0.701677 0.336968 0.107978 0.012617 0.238783 -0.268758 -0.068538 -0.434076 0.081288 0.212763 0.582976 -0.271401 0.109267 -0.238811 0.654384 -0.129599 -0.580906 0.141355 0.381797 -0.310125 0.283370 0.377990 -0.380112 0.136185 0.126897 0.019518 -0.005380 -0.214690 0.208463 -0.009691 -0.065076
culturalplaceexit 0.497528 0.048939 0.034532 -0.000478 -0.045485 0.088208 0.097549 -0.167352 -0.429907 -0.216456 0.074574 -0.376168 -0.343056 -0.318309 -0.077915 -0.151583 0.281965 -0.199345 0.332285 0.649505 0.328786 0.085959 0.040459 0.220945 -0.237677 -0.074951 -0.404178 0.064303 0.196538 0.540510 -0.246126 0.108762 -0.224510 0.613967 -0.109162 -0.532094 0.124298 0.341752 -0.304845 0.268207 0.345973 -0.365666 0.134248 0.123226 0.008627 0.005023 -0.213726 0.203522 -0.030229 -0.061724
homeenter 0.578560 -0.012172 0.152491 -0.021172 -0.012274 0.200259 0.106149 -0.163000 -0.481868 -0.105162 0.077912 -0.471239 -0.390102 -0.510891 -0.198186 -0.095142 0.394102 -0.123647 0.438478 0.797379 0.300621 0.132092 -0.045553 0.335494 -0.346746 -0.008249 -0.417046 0.193544 0.178330 0.618521 -0.263353 0.071241 -0.225018 0.706198 -0.184581 -0.537406 0.154941 0.458849 -0.271094 0.225733 0.464830 -0.320562 0.093883 0.236034 0.003837 0.045901 -0.229786 0.070785 0.114742 -0.091920
homeexit 0.626207 -0.019620 0.141491 -0.023520 -0.001184 0.201498 0.114129 -0.195293 -0.529091 -0.124843 0.083307 -0.502615 -0.431082 -0.559766 -0.206571 -0.107281 0.429458 -0.142267 0.476513 0.865005 0.348680 0.137439 -0.057648 0.358186 -0.377363 -0.006137 -0.446374 0.200806 0.190592 0.675267 -0.280600 0.078439 -0.241803 0.760093 -0.193660 -0.595723 0.171116 0.477351 -0.304838 0.247289 0.499532 -0.369003 0.099037 0.236851 0.015783 0.052299 -0.242227 0.087098 0.102932 -0.092259
supermarketenter 0.022968 -0.009632 0.010087 0.007298 0.001946 0.005292 0.009707 -0.017744 -0.019318 -0.006250 -0.002182 -0.032931 -0.022689 -0.036275 -0.012896 0.001807 0.029225 -0.014874 0.016584 0.045566 0.021201 0.002449 -0.011494 0.027557 -0.009561 -0.008683 -0.026990 0.001619 0.013026 0.028187 -0.004818 0.009309 -0.005473 0.034590 -0.000640 -0.025927 -0.000101 0.018663 -0.008255 0.016540 0.018693 -0.012131 0.010810 0.012191 -0.003153 -0.000935 -0.008312 0.009849 0.009756 -0.000930
supermarketexit 0.031392 0.004406 0.004844 -0.000153 0.002297 0.016273 0.006807 -0.010823 -0.019171 -0.015138 -0.005416 -0.024967 -0.014861 -0.018389 -0.016773 0.004019 0.025569 -0.014333 0.019534 0.036615 0.012377 0.003616 0.007060 0.020378 -0.020477 0.006182 -0.023989 0.001851 0.009606 0.024646 -0.019232 -0.004713 -0.013291 0.040037 -0.004937 -0.027213 0.014450 0.023679 -0.019070 0.016597 0.015494 -0.016816 0.011565 0.003439 -0.001729 -0.006165 -0.007492 -0.000752 0.011287 0.004604
