17 50
walking_in -0.416374 0.231751 -0.711065 0.043993 0.019165 -0.117856 0.424810 -0.205202 0.364488 -0.680638 0.568650 -0.350394 0.331949 -0.042361 0.046787 -0.143658 0.344155 0.254753 -0.005327 -0.478137 -0.141856 -0.609247 -0.154768 0.314079 0.447368 0.020285 -0.398317 0.551528 -0.220592 -0.053360 0.490919 -0.355172 -0.426338 0.341640 -0.057176 -0.366348 0.486316 -0.127073 -0.162131 0.354997 -0.011451 -0.009163 0.319095 -0.284760 -0.374774 -0.089559 0.250953 0.293941 0.035477 0.054015
still_stop -0.176728 0.187978 -0.268365 -0.081553 -0.026301 -0.075764 0.250838 0.075287 0.214658 -0.151099 0.189553 0.021260 -0.024942 0.033964 0.039610 -0.293764 0.153491 0.140148 -0.101816 0.041236 -0.220068 -0.056888 0.105319 -0.100166 0.085014 0.113549 -0.188100 -0.126749 -0.034308 -0.214479 0.067776 -0.048271 -0.063603 0.639138 -0.128163 -0.006405 0.355843 0.246959 -0.111641 0.181282 -0.078441 0.183481 0.517940 -0.073649 0.285331 -0.185333 0.247482 0.228756 -0.052572 -0.191796
still_start -0.157307 0.181587 -0.227911 -0.109405 -0.035344 -0.088937 0.253761 0.106873 0.199259 -0.100938 0.146382 0.038288 -0.066518 0.035758 0.025548 -0.313931 0.128853 0.133595 -0.119522 0.095048 -0.235576 0.002120 0.145940 -0.151122 0.069856 0.114517 -0.186296 -0.198365 -0.021584 -0.248813 0.030066 -0.019448 -0.041933 0.690230 -0.141085 0.030339 0.356317 0.292730 -0.105540 0.164425 -0.089925 0.195906 0.553050 -0.052358 0.362392 -0.202281 0.251439 0.238739 -0.052326 -0.220030
walking_start -0.292583 0.215935 -0.479658 -0.031320 -0.010024 -0.103215 0.341684 -0.045464 0.299958 -0.385373 0.358681 -0.142842 0.111333 0.000492 0.040226 -0.245143 0.246268 0.187443 -0.051994 -0.173637 -0.179113 -0.299277 0.009922 0.075777 0.242048 0.077711 -0.286950 0.153037 -0.111728 -0.166188 0.247097 -0.190266 -0.213691 0.550755 -0.102511 -0.175482 0.427324 0.094823 -0.159473 0.245998 -0.044017 0.116512 0.464198 -0.172747 0.025075 -0.153063 0.265574 0.269890 -0.019332 -0.093074
walking_stop -0.292420 0.202994 -0.473856 -0.001095 0.010385 -0.090837 0.322481 -0.067529 0.270583 -0.412760 0.365817 -0.175167 0.167003 0.002121 0.048552 -0.196783 0.237842 0.186452 -0.027085 -0.235643 -0.160834 -0.340574 -0.038291 0.110296 0.264197 0.060564 -0.279471 0.236060 -0.119796 -0.118510 0.284179 -0.198037 -0.249050 0.416494 -0.075281 -0.198857 0.395887 0.021736 -0.146250 0.256729 -0.019630 0.062947 0.368118 -0.168715 -0.091047 -0.108826 0.227085 0.234759 -0.009728 -0.035964
bus_enter -0.115879 0.196726 -0.164583 -0.152006 -0.031725 -0.069773 0.225588 0.157718 0.200566 0.015356 0.075995 0.128731 -0.138735 0.056742 0.042964 -0.359901 0.094119 0.103971 -0.131855 0.201523 -0.260714 0.109273 0.209168 -0.242743 -0.008784 0.147753 -0.154979 -0.355049 0.034822 -0.307332 -0.058087 0.048113 0.040914 0.799281 -0.168487 0.106256 0.351110 0.389452 -0.109624 0.147553 -0.091027 0.273434 0.642672 -0.022286 0.521938 -0.244984 0.275573 0.229893 -0.077009 -0.276733
bus_exit -0.142996 0.194355 -0.201036 -0.120655 -0.037774 -0.083173 0.236126 0.114242 0.190256 -0.036199 0.114367 0.090830 -0.099592 0.033350 0.041234 -0.311779 0.107148 0.100220 -0.122793 0.136340 -0.227371 0.041550 0.155382 -0.187217 0.032352 0.148200 -0.164448 -0.265540 0.010784 -0.270753 -0.002537 0.011174 -0.012376 0.720714 -0.142712 0.049316 0.355197 0.322209 -0.102154 0.156718 -0.091033 0.234626 0.582957 -0.036440 0.417998 -0.228751 0.257807 0.221337 -0.077074 -0.248580
car_exit -0.189779 0.232053 -0.261886 -0.127501 -0.019255 -0.095157 0.270292 0.132065 0.249265 -0.087629 0.165755 0.078949 -0.084449 0.042580 0.045234 -0.366006 0.137490 0.134669 -0.122054 0.116706 -0.264675 0.014166 0.174712 -0.183128 0.042269 0.150333 -0.191955 -0.260566 -0.000415 -0.279220 0.012473 -0.030035 -0.026329 0.807254 -0.172195 0.046722 0.417282 0.343557 -0.150729 0.182975 -0.084638 0.238697 0.651535 -0.051386 0.429268 -0.249173 0.299901 0.259184 -0.089520 -0.257661
car_enter -0.191341 0.230638 -0.248137 -0.151188 -0.036996 -0.098882 0.281882 0.166602 0.253158 -0.054896 0.166878 0.093521 -0.113629 0.063689 0.049723 -0.399409 0.146422 0.145717 -0.133304 0.153930 -0.276839 0.034857 0.200616 -0.206260 0.022671 0.182583 -0.183076 -0.323482 0.021689 -0.316317 -0.008760 0.000368 -0.012742 0.882332 -0.195228 0.065312 0.437181 0.402413 -0.148477 0.179336 -0.098366 0.274163 0.701556 -0.058712 0.489156 -0.261179 0.314128 0.274740 -0.089412 -0.288733
friendhome_exit -0.241769 0.267803 -0.366033 -0.131612 -0.017440 -0.106507 0.317126 0.090876 0.310411 -0.195977 0.258864 0.033083 -0.043053 0.047121 0.075242 -0.381805 0.197817 0.151768 -0.117589 0.052781 -0.261842 -0.078146 0.154434 -0.145125 0.090420 0.174902 -0.250654 -0.165230 -0.024107 -0.306329 0.076415 -0.095346 -0.080865 0.851678 -0.180958 -0.038301 0.487299 0.318774 -0.187925 0.221249 -0.074011 0.252665 0.698960 -0.087991 0.360168 -0.273165 0.352115 0.304315 -0.083636 -0.261144
friendhome_enter -0.250210 0.256550 -0.363365 -0.109551 -0.030263 -0.102025 0.304889 0.064542 0.298422 -0.217067 0.250333 0.015999 -0.021859 0.033092 0.072390 -0.353694 0.178222 0.145844 -0.104700 0.023333 -0.247134 -0.105570 0.134447 -0.111744 0.104781 0.154783 -0.232606 -0.106802 -0.019333 -0.262140 0.091503 -0.105921 -0.099222 0.779456 -0.163416 -0.050804 0.464995 0.283691 -0.178882 0.218381 -0.076974 0.228039 0.643638 -0.094529 0.299023 -0.250377 0.326445 0.284935 -0.074326 -0.223612
culturalplace_exit -0.348514 0.289678 -0.540852 -0.079120 -0.007011 -0.125876 0.424564 0.009889 0.347885 -0.398168 0.392724 -0.107787 0.072713 0.031935 0.065993 -0.348317 0.264613 0.223568 -0.082357 -0.135533 -0.274014 -0.282427 0.066170 0.003828 0.232237 0.128690 -0.341623 0.075966 -0.089609 -0.246528 0.227145 -0.190592 -0.224725 0.794560 -0.146270 -0.142516 0.563263 0.213931 -0.185131 0.291281 -0.070094 0.178468 0.648147 -0.172258 0.162717 -0.221983 0.348625 0.328861 -0.052203 -0.176523
culturalplace_enter -0.360232 0.306576 -0.541454 -0.089153 -0.018612 -0.123930 0.441198 0.011281 0.377519 -0.402421 0.413408 -0.094848 0.073941 0.021953 0.056908 -0.370054 0.268657 0.231961 -0.094332 -0.114509 -0.276192 -0.273220 0.068102 -0.011046 0.235527 0.132579 -0.340447 0.063736 -0.109524 -0.278544 0.230935 -0.184269 -0.212662 0.845060 -0.165280 -0.149261 0.587807 0.236595 -0.200947 0.310791 -0.075269 0.190328 0.704557 -0.186284 0.168152 -0.255862 0.373730 0.343320 -0.058270 -0.199891
home_enter -0.320680 0.326901 -0.490538 -0.146215 -0.007371 -0.156406 0.441810 0.093227 0.369025 -0.321531 0.365632 -0.018843 0.007553 0.040675 0.087713 -0.467765 0.247114 0.220382 -0.134901 -0.008959 -0.332677 -0.180036 0.163978 -0.114058 0.189686 0.183096 -0.331861 -0.119498 -0.050122 -0.333775 0.167431 -0.150694 -0.138719 1.014115 -0.219747 -0.065309 0.611946 0.354555 -0.218523 0.294559 -0.119971 0.262777 0.815190 -0.163835 0.377285 -0.298929 0.409303 0.372398 -0.076102 -0.270789
home_exit -0.363679 0.341456 -0.560463 -0.141800 -0.013853 -0.169654 0.458828 0.101040 0.405883 -0.357464 0.394641 -0.033823 0.001384 0.058793 0.093309 -0.502719 0.274974 0.246180 -0.136112 -0.005435 -0.371457 -0.196646 0.158016 -0.126496 0.208335 0.175793 -0.352560 -0.118525 -0.062619 -0.358212 0.185544 -0.164138 -0.154115 1.079499 -0.223583 -0.076022 0.674263 0.379052 -0.222384 0.329849 -0.123916 0.302753 0.898091 -0.177537 0.372569 -0.329279 0.428110 0.411345 -0.093864 -0.303404
supermarket_exit -0.025360 0.020687 -0.027395 -0.000139 -0.007484 -0.000005 0.029925 0.007241 0.022193 -0.010085 0.018243 0.004052 0.004525 -0.003366 0.012633 -0.014962 0.009672 0.003082 0.003660 -0.007618 -0.022495 0.000216 0.015307 -0.003166 0.001014 -0.001053 -0.008848 0.000318 -0.005020 -0.020196 0.003328 -0.002816 -0.012484 0.038652 -0.003507 -0.012345 0.027914 0.005526 -0.002159 0.014304 0.000287 0.015376 0.032719 -0.002695 0.009428 -0.017007 0.027574 0.020859 -0.008190 -0.010832
supermarket_enter -0.016545 0.024146 -0.033110 -0.002544 -0.007637 -0.007206 0.011512 0.010195 0.026199 -0.005082 0.025501 -0.003741 -0.002052 0.003233 0.012336 -0.015501 0.020187 0.019397 -0.003715 0.007334 -0.016964 -0.015617 0.012039 0.000263 0.018216 0.008528 -0.006427 -0.011204 -0.011781 -0.011188 0.003264 -0.007995 -0.005593 0.043397 -0.019441 -0.003033 0.029299 0.020103 -0.000466 0.023722 -0.010676 0.008601 0.031596 -0.000265 0.015788 -0.009497 0.015719 0.021900 -0.013608 -0.009570
